{
  "w1": [
    [
      0.13942679845788375,
      -0.47498924477733306,
      -0.22497068163088074,
      -0.27678926185117725,
      0.2364712141640124,
      0.1766994874229113,
      0.3921795677048454,
      -0.41306116737058385,
      -0.07807818031472957,
      -0.47020278056192966,
      -0.28136202519639664
    ],
    [
      0.005355288103362388,
      -0.4734640303161364,
      -0.3011623493133515,
      0.1498844377795232,
      0.04494148060321668,
      -0.2795593779593033,
      0.08926568387590872,
      0.30943045667782665,
      -0.493501240321939,
      0.3058192518328079,
      0.19813939498822686
    ],
    [
      -0.15974948348200813,
      -0.34452050018821845,
      0.4572130722067812,
      -0.16340545488737324,
      -0.4072541566198521,
      -0.403283623166536,
      0.3474943663474598,
      0.10372603136689107,
      0.3071282732743802,
      0.22973178669381789,
      0.03622809145470074
    ],
    [
      0.4731157639793706,
      -0.12146562279164652,
      0.052040631273227,
      0.32940466425299486,
      0.11851975236424606,
      0.36170690031077724,
      0.07735214525676204,
      0.20457183621492347,
      -0.4541756163443378,
      -0.27210172434845314,
      -0.21061203639789283
    ],
    [
      -0.4202080230763725,
      -0.2672091136389698,
      -0.3989985705902709,
      -0.22202639688990788,
      0.13568444426440018,
      -0.13516782102991576,
      -0.12981903288311736,
      -0.2904929692285123,
      -0.23302217795088664,
      0.436654587712494,
      0.14803538524659354
    ],
    [
      0.10913100566698819,
      -0.328861351801903,
      0.22912679795034918,
      -0.3365975062380716,
      -0.12054455824235222,
      0.48952335063659524,
      0.13999975985409285,
      0.05694974377464623,
      0.1846142509898746,
      0.3428519201898096,
      0.2759999115462448
    ],
    [
      -0.27095192803589563,
      -0.46789975609596224,
      -0.18454695194091808,
      -0.23225912402429727,
      -0.28901715641367354,
      0.44290971433505444,
      0.37636762647266886,
      -0.18532211920152208,
      0.15543866529488004,
      -0.10436809893933574,
      0.4145475897405435
    ],
    [
      -0.0411481474126012,
      -0.23511983350194754,
      -0.25337249230601655,
      0.06136813416315079,
      -0.23725839147706473,
      0.08458599022354052,
      0.397822883602477,
      -0.10059949485960273,
      -0.28067924084271667,
      0.49753760649511025,
      0.009526293676464515
    ],
    [
      -0.4090905878262061,
      -0.45288362457526543,
      -0.39035086964934085,
      0.12744604170309004,
      0.2920793643629641,
      -0.07784003320031596,
      -0.43647229384804287,
      -0.11838071349346324,
      0.4961213802400968,
      0.029114345099137018,
      0.47107837761361815
    ],
    [
      0.36077970223449807,
      -0.48851897805718036,
      0.22072181936019464,
      0.18171036902657478,
      0.03697033040879516,
      -0.23317481004745721,
      0.14096179857980806,
      -0.38844782640412356,
      -0.06523474933089501,
      -0.046276293670793556,
      0.45381592752108013
    ],
    [
      0.37585294037819406,
      -0.23661094924890924,
      0.0005861130502983203,
      -0.32134811946986863,
      0.4126278393448205,
      0.3705185698367669,
      -0.2015552085513671,
      0.13894949486600516,
      0.10897021143817232,
      -0.3471607314503652,
      0.26251080007515126
    ],
    [
      0.039379030119625735,
      0.2786264786305582,
      0.030353672195177483,
      -0.4994281038720565,
      -0.1758439429953269,
      -0.4805232576141677,
      0.4290986162646171,
      0.3787218778231842,
      0.33166552936117943,
      -0.19248587459733857,
      -0.44207483350581245
    ],
    [
      0.37800959920404054,
      0.4469494452979941,
      -0.4143465479321212,
      -0.014009536683386226,
      -0.4307874815316164,
      0.26060216525723157,
      0.26583442930698775,
      -0.3716085355002372,
      -0.024717621901268694,
      0.0498035934949439,
      -0.2349433710599409
    ],
    [
      0.37243304108525743,
      -0.07686205979911309,
      -0.28820179455791795,
      0.03929608877945834,
      0.22993106908997618,
      -0.2988489366103041,
      -0.18828370869910505,
      0.49514935666089466,
      0.1498780576394535,
      -0.06189991608549594,
      0.017575841035590622
    ],
    [
      -0.3789958041317343,
      -0.27530266296844264,
      -0.16191443785254467,
      0.08830871845723332,
      -0.269885267403423,
      -0.2797826155484405,
      -0.42900691399096746,
      0.1311029572700989,
      -0.2710582161888456,
      0.40542001300612796,
      0.3596354002537465
    ],
    [
      -0.42914265011134656,
      -0.2619953656310048,
      0.16897777829628058,
      -0.2857631926295614,
      -0.367688151274975,
      0.435514240580671,
      0.07104309332528447,
      -0.02732897368820586,
      0.2846194242907534,
      0.3074969977666434,
      -0.3095900856381223
    ]
  ],
  "b1": [
    -0.08061383715423534,
    -0.01378976351872449,
    -0.015284275396015845,
    -0.006595066392665008,
    0.045815169891970126,
    0.034672909458660306,
    0.09683304227319323,
    -0.08031642576960824,
    -0.019475743579546248,
    -0.03213947892100737,
    0.07233450727055821,
    -0.05026873321594288,
    -0.061958218311837704,
    -0.010277290433373623,
    -0.015623672033119165,
    -0.04429097106661191
  ],
  "w2": [
    [
      -0.2501935521178995,
      0.4232655992760128,
      -0.056869254946543046,
      0.3613491047618306,
      0.05032531244984806,
      -0.44941167047511876,
      0.4992824684127266,
      0.3360275850799519,
      0.46899625728475125,
      0.4263669830081276,
      0.34869573441430546,
      -0.333688889396086,
      -0.01435887454928153,
      -0.2862527008008183,
      -0.09895970745054739,
      -0.4413646000278211
    ],
    [
      -0.1210268810230839,
      0.48530884377972594,
      -0.23479694182784805,
      0.28407060194856937,
      -0.044991632660856706,
      -0.07699251400983709,
      0.4573176408596732,
      0.49542268949271384,
      0.055768323405618214,
      0.218408275296326,
      -0.34520317472593587,
      -0.2032921745054358,
      0.4687093649691588,
      0.07918029081625622,
      0.04219520137427424,
      0.2479755603790641
    ],
    [
      -0.4428347270925169,
      0.08417759445897122,
      0.002850382919513561,
      0.35271989204828536,
      -0.34256727206051674,
      0.46077890327445037,
      -0.4198885347594131,
      -0.3141750390192768,
      0.09503510645002766,
      0.17521255360409016,
      -0.2647961049990688,
      -0.3801133860528758,
      0.3902873141294375,
      -0.25378465221137514,
      0.0945191535334412,
      0.11938151033210309
    ],
    [
      -0.08077508466412753,
      0.08367228929122472,
      0.022782715531958875,
      0.43470625773642724,
      -0.29574080057646357,
      0.2161918007894148,
      -0.261314047384154,
      -0.1042141532087455,
      0.17169022295997127,
      -0.20000292020123778,
      -0.18382280372814597,
      0.2518644924144021,
      -0.4274568855068427,
      -0.04171447738141387,
      0.49845444085444235,
      0.49609644785509444
    ],
    [
      -0.426739278900367,
      -0.2868456877329596,
      -0.23479958524959865,
      0.43325937799370906,
      0.38086417368643954,
      0.3792702424845428,
      -0.13047291126111604,
      -0.34225316764276803,
      0.333744954639807,
      0.20353992508737095,
      0.11167776572595012,
      0.4872330636315043,
      0.1539763177107326,
      -0.49217689284784205,
      0.31710413511546165,
      -0.2006212478000221
    ],
    [
      0.16338871496607732,
      0.4389300039271039,
      -0.3657088856066323,
      -0.3845713295808978,
      -0.39296402229058236,
      0.053223640884815904,
      -0.22765178768518368,
      0.10482982703022392,
      0.21761218713879793,
      -0.29640268767254707,
      0.13423795888507972,
      -0.2360160983695906,
      -0.011468147850623445,
      0.40533649107932324,
      0.34610371329485545,
      -0.4077015322872666
    ],
    [
      -0.07642422743627364,
      -0.22331977602774833,
      -0.4964543109122177,
      0.2711192230196271,
      0.13711337730137962,
      -0.2380447375656518,
      0.24123090834793082,
      0.05168042112639126,
      -0.07231308101932066,
      -0.49033030039166003,
      -0.42475613992623296,
      0.38310639330014296,
      0.40392857155989315,
      0.04559028920552233,
      0.3345950198860167,
      0.08250956648979402
    ],
    [
      -0.35190621443251735,
      -0.37255448071786124,
      -0.19174165006986632,
      0.39898148874259,
      0.2961223048880417,
      0.36070258200090277,
      0.3989246365264746,
      -0.28992346166024596,
      -0.25047026077707557,
      -0.39720637832821437,
      0.2801162418714427,
      0.3841347014510089,
      -0.0936226101678832,
      0.1206615101507128,
      -0.34544666166779536,
      0.42988101569367443
    ]
  ],
  "b2": [
    0.0729211392439928,
    0.09524120658619259,
    0.06215434398807937,
    0.07628324093266489,
    -0.09504272762036226,
    0.04731289435101643,
    -0.03356290641071427,
    0.08616317720966513
  ],
  "w3": [
    [
      0.30223513893713894,
      0.3640640283752794,
      0.310749316574389,
      -0.23319429040552797,
      0.28737450913547113,
      -0.3919043735970429,
      0.37216678290608973,
      0.35859325133778164
    ],
    [
      -0.27756628245433557,
      0.31658660559692897,
      -0.039696765321057925,
      -0.19480913266139943,
      0.2953454991528618,
      -0.27240451259222964,
      -0.4763355652985485,
      -0.30687021167229134
    ]
  ],
  "b3": [
    -0.0343476097604587,
    0.07287058840605729
  ]
}