{
  "w1": [
    [
      0.05066855584468891,
      0.7045568343406958,
      0.26867559186686324,
      0.08840581393458795,
      0.362607387037326,
      0.24001154162743416,
      0.06538313211315931,
      -0.9254092976899079,
      -1.0802388352284422,
      0.2981652366976081,
      0.25732665536455485
    ],
    [
      0.4985482856974585,
      -0.44952719870201413,
      0.3671198409843734,
      0.3372586402867558,
      0.11505984412984417,
      -0.8167482008865018,
      -0.10337029716864253,
      -0.291974361572835,
      -0.07093605667629553,
      -0.5752221317343988,
      -0.03337459351677861
    ],
    [
      -0.8674525811490102,
      0.7872785715603537,
      -0.36241012499287484,
      -0.023930080625994384,
      0.1286294831500172,
      0.21982775284143757,
      -0.4338618961112944,
      0.9547404303165502,
      -0.42205590312321656,
      0.035175378011183506,
      -0.22607620673346307
    ],
    [
      -0.2690071090672853,
      0.7860125999407653,
      -0.19469402894935517,
      -0.26098805619719784,
      0.38839053331067086,
      -0.4201343750611085,
      -0.24086048838771548,
      -0.5351602281455073,
      0.5215784263859311,
      -0.3732052607153377,
      0.10818591736599112
    ],
    [
      0.4309333434149768,
      1.0253696836170783,
      0.3508832607217702,
      -0.5110003691854288,
      0.07321499204910384,
      -0.010879868219947516,
      0.025022717527123376,
      0.27651604702970717,
      0.06251341492638746,
      -0.2868113658884823,
      0.14361408897994082
    ],
    [
      1.057389507657136,
      0.2633919133912073,
      -0.4441171207650295,
      0.12795198216838966,
      -0.1739597094635655,
      0.5036469909818077,
      0.18647501041831738,
      0.14716398281315235,
      0.2920886420112253,
      0.03108972184181538,
      -0.07864842651115622
    ],
    [
      -0.26654623266320565,
      -0.12294178920444565,
      0.2936375142305243,
      -0.3407280881988354,
      0.8002936272450315,
      0.17910942763869522,
      0.6924011608308752,
      0.14648073727933775,
      -0.09358472994073243,
      0.508194133853979,
      0.24850708996798063
    ],
    [
      0.3372702032736171,
      -0.10056504460288032,
      -0.1867616829424302,
      0.22165737352401021,
      -0.09142496177944916,
      -0.0509535336263305,
      0.6572166637299611,
      0.6349749546135859,
      -0.7921066819326723,
      0.10128419220073197,
      0.11139749824932182
    ],
    [
      -0.9170262404438062,
      0.4647550792730763,
      -0.31331894042987607,
      -0.18271217708191545,
      0.2888107539795772,
      -0.4181428101904579,
      -0.17543578642593738,
      0.6444907495204352,
      0.3523183955452989,
      -0.377027711195737,
      0.6509183780924573
    ],
    [
      -0.11473132976998365,
      -0.06417769805984887,
      -0.3034205258271652,
      0.0018309108473345515,
      -0.418546249900436,
      0.49149592054428776,
      0.11828251335061538,
      0.45712607912645037,
      -0.5425174188004889,
      0.0020489882170238315,
      -0.3636049809977019
    ],
    [
      -0.1804116698579399,
      -0.1029066654884153,
      -0.0014544496928019066,
      0.5672369060721263,
      0.12811212855873172,
      0.23433100067670082,
      0.20664858711641731,
      0.9184288812931969,
      -0.684066595987729,
      -0.529352592655067,
      0.6778944985378379
    ],
    [
      -0.2532911727814387,
      0.148834998561476,
      -0.20654497145117823,
      0.3676503617024669,
      0.29023232782916664,
      -0.6286476065404999,
      0.6908622034063787,
      0.13672228814787762,
      -0.04768993567951104,
      -0.34615683307633904,
      -0.8406479881665883
    ],
    [
      -0.06013166513587623,
      -0.8776034044190093,
      -0.35932135443197954,
      0.37181601899550243,
      0.08062733338687869,
      0.2227233207187957,
      -0.3474803850166502,
      0.28714184460239606,
      0.7578552860413142,
      0.4517166190898528,
      0.6550579701061625
    ],
    [
      -0.22548744994019757,
      -0.9980961506277304,
      0.5614918562132075,
      0.24339187055318387,
      -0.5852081396516227,
      -0.6739282379192105,
      0.07063357227801606,
      0.18186916586931623,
      -0.04839918835719629,
      -0.06400572835548494,
      -0.31852787266396776
    ],
    [
      0.38862858740731704,
      0.18755788709948076,
      0.31087717842852736,
      0.16589588849942247,
      0.08900694372947845,
      -0.940502992038856,
      0.5427265811054145,
      -0.7348462324969719,
      -0.12126585164585636,
      -0.6251237585844879,
      0.0940451601167019
    ],
    [
      -0.9061388540066783,
      -0.04932030102886084,
      -0.22187079343945867,
      0.7098277562775499,
      0.44546054518464484,
      0.2676945376632812,
      0.048806682975050364,
      0.8002154521039768,
      -0.18749421032311514,
      0.5617764055588174,
      0.11348872295407306
    ]
  ],
  "b1": [
    0.10818357765674591,
    -0.004171160981059074,
    -0.06417784094810486,
    0.003709519049152732,
    0.011981692165136337,
    -0.06250771135091782,
    0.09045591205358505,
    -0.057099953293800354,
    -0.015364816412329674,
    0.002388498280197382,
    -0.02238238975405693,
    0.02541990578174591,
    0.04978204891085625,
    0.028986681252717972,
    -0.006575261242687702,
    0.08356516808271408
  ],
  "w2": [
    [
      0.7173929807981124,
      -0.2561202721959568,
      -0.4692829134896187,
      -0.29539870548342306,
      -0.16743695224492663,
      -0.592812759500076,
      0.5940935473311688,
      -0.2023007463213575,
      -0.32396533113090537,
      -0.30004083922649943,
      0.185462744197357,
      -0.1914813536149398,
      0.11722772145731443,
      0.5772752519944425,
      0.08069756793203371,
      0.3276143521217176
    ],
    [
      0.23826962184976608,
      -0.60656715625522,
      -0.33978060330908877,
      -0.0975870647796766,
      0.3503030327465988,
      0.06870560490904298,
      0.050019085542829585,
      -0.6609442247896097,
      -0.011866934617503063,
      0.1814427643478131,
      -0.8498470810091056,
      0.40585558920998077,
      0.3850681540895633,
      -0.1863547708991823,
      -0.3417886007449429,
      0.4762020835244292
    ],
    [
      -0.02347339949712555,
      0.19357034743590762,
      0.037995243212184227,
      0.1531635916761486,
      0.7646998663244181,
      -0.08253106800417684,
      -0.05340355152896198,
      -0.404457308470472,
      0.15448278122946477,
      0.21247619761684966,
      -0.3641619945833429,
      -0.7706245940080603,
      -0.563364184313139,
      0.31324963182887405,
      0.3010870653407388,
      0.37437435834930044
    ],
    [
      -0.007933420708598236,
      -0.2795741882013105,
      -0.23653089912424405,
      0.4553303746899176,
      0.27730684954054197,
      -0.17193996715001794,
      -0.2640409897060487,
      0.13470347653220802,
      0.286853850684651,
      -0.3395153261902948,
      -0.5680163972684396,
      0.41452505300555154,
      -0.3168239656661719,
      0.5483569680162268,
      0.03413073397612089,
      0.5020315843505364
    ],
    [
      0.18392731550639757,
      0.06971301316206681,
      0.1249640869270046,
      0.11474313491377365,
      0.3480706682708096,
      -0.48320608593553105,
      -0.25741172608927143,
      -0.03839491328048452,
      0.5925658346402851,
      0.40273613253105983,
      -0.00969910913474169,
      -0.28827065673857716,
      0.0697196355822306,
      0.8903115985777386,
      -0.40110362300167274,
      -0.11682507440955395
    ],
    [
      0.06985082170283424,
      -0.13205875017284197,
      0.242596080986533,
      0.20722188978470146,
      -0.7272484701807259,
      0.006905059916008119,
      -0.6032604680914682,
      0.1576299754893533,
      0.4019055345154064,
      0.042582263572854946,
      0.004090018853606272,
      -0.4017206299340545,
      0.108890078906299,
      0.4487417751471617,
      0.08438963271200542,
      -0.21399266980754214
    ],
    [
      0.1839193857876131,
      0.3338734664201507,
      -0.6528042758029295,
      0.16520193999111862,
      -0.010207810315492793,
      0.13974862978928188,
      -0.15235535851728724,
      -0.4512512883207354,
      -0.29142933239134716,
      -0.17345642512007106,
      -0.11274817076038018,
      -0.5359112202435933,
      -0.19239298171481764,
      0.5225639789345383,
      -0.09893872136723834,
      0.04380506546835461
    ],
    [
      0.11468953376089895,
      -0.4841172230129977,
      -0.7740092555198914,
      0.502905818998196,
      -0.1953571875690682,
      0.04715448427657764,
      -0.37500324870886753,
      -0.6517773300342148,
      -0.13978165718614155,
      -0.3281544984954265,
      -0.19195894091012403,
      -0.2960124592280027,
      -0.19336006537154826,
      0.8831922305458373,
      0.029536529009514534,
      0.10856222329445944
    ]
  ],
  "b2": [
    0.13458244502544403,
    0.08328216522932053,
    3.7561570934485644e-05,
    -0.010799936950206757,
    0.0025922805070877075,
    -0.002046225592494011,
    -0.010773628950119019,
    -0.003354336367920041
  ],
  "w3": [
    [
      -0.7838904270175979,
      -0.6015870611741321,
      0.22428162630264306,
      0.12862131670224403,
      -0.22489310243983834,
      -0.1897227959533698,
      -0.6074973007812525,
      1.2110564466158658
    ],
    [
      0.25970405214059716,
      -0.16765719885542818,
      0.19693027199744736,
      -0.14112269061728258,
      0.7272274438228543,
      -0.08868991121468683,
      -0.9849790075741907,
      -0.22628705758486098
    ]
  ],
  "b3": [
    0.14760027825832367,
    -0.14760029315948486
  ]
}