{
  "weights": {
    "w1": [
      [
        0.21187908111388037,
        -0.4318730502064893,
        -0.20674960672885803,
        0.22879891865758353,
        0.15785361803487682,
        -0.22553970740887114,
        -0.01836066933555079,
        -0.027153584702924324,
        0.05960604681069377,
        0.21559937285767683,
        -0.41469371121090587
      ],
      [
        -0.04510727636646477,
        0.13350472385653023,
        -0.7394834159727081,
        -0.3485338141808815,
        1.7912231584961769,
        -0.20437804298809767,
        -0.04079006961763102,
        -0.20973838257237185,
        0.7377088779186166,
        -0.2251580944591528,
        -1.0971620862624962
      ],
      [
        0.28283216895527,
        -0.3878650811109046,
        0.38445191575487864,
        0.42412018227649734,
        0.24688738815523745,
        0.6639103211736498,
        0.4936563030599517,
        0.8889365137361067,
        -0.6014474111830839,
        -1.3460851072206097,
        1.2074521824227538
      ],
      [
        0.657276799762358,
        -0.6022083279528698,
        -0.5357236621743224,
        -0.20870845237730323,
        0.28284507997878433,
        -0.22103665766344893,
        -0.1579526546234438,
        0.12232206153785007,
        0.030363001852301553,
        -0.5654212517215275,
        -0.3509065112679703
      ],
      [
        -0.010079129066146896,
        0.6252049577067248,
        0.4623212246396541,
        -0.07464669316505451,
        -0.8701347897506903,
        -0.6509448749008115,
        -0.9352515783666324,
        -0.7109939920121636,
        -0.7857561367462579,
        0.4423092460652493,
        1.198515997619356
      ],
      [
        -0.09980197188887734,
        -0.09627506229310392,
        -0.7041916542686476,
        0.7085845365157257,
        -0.6542323757782285,
        -0.6149285968092477,
        -0.6004808451192076,
        0.41723693504481957,
        0.3547166182962714,
        -0.5787443034654994,
        0.7651990987787296
      ],
      [
        0.6468424556061237,
        0.028889602307435404,
        -0.6612257613079432,
        0.6709186328984829,
        0.20082034011903852,
        0.5281252464181152,
        -0.17175041393023244,
        0.569685081624957,
        -0.09008142295327896,
        0.12602633073365527,
        0.23320676767587892
      ],
      [
        0.3939445578794412,
        -0.6079629086333828,
        -0.30917835215740935,
        0.4828795964235698,
        0.3103534829102579,
        0.013373272391458557,
        -0.10562295601477523,
        -0.6252443789410322,
        0.5890558716536393,
        -0.06546734806432848,
        1.4700966122894363
      ],
      [
        -0.1993728184938118,
        -0.23213591514857798,
        -0.056500169196241685,
        -0.4416525830354731,
        -0.1819315165424327,
        -0.22482525990055455,
        -0.13418651465643633,
        0.5838773597894762,
        -0.34977087741491414,
        0.36731396834895436,
        -0.04176372369991148
      ],
      [
        0.1860716018749416,
        0.047835702599513356,
        -0.09537479386808183,
        -0.0713842620418166,
        0.6707507110236383,
        -0.5241795641064168,
        1.491626946480265,
        0.608041068766011,
        -0.43823120274549043,
        0.39707201219792865,
        1.2886702165071078
      ],
      [
        -0.19410814880028393,
        -0.49330461236227896,
        -0.35014810491115544,
        0.14419826356141394,
        -0.32524007913707254,
        -0.7277773586365943,
        1.4832447987480564,
        1.51259122016688,
        0.1782721605568904,
        -0.6914396336920684,
        -0.1568629442219434
      ],
      [
        -0.2526640815006088,
        0.16144708373888111,
        0.44474448994303745,
        0.09422847621711053,
        -0.006115559587695294,
        0.5475121332035684,
        0.97171091903919,
        -0.6597562808348661,
        -0.9246365723941828,
        -1.4987552468203273,
        -2.1282040423552493
      ],
      [
        0.15555204201689454,
        -0.25822062874118057,
        -0.27440179862110636,
        -0.46882302943399623,
        -0.08400468497145723,
        -0.4024092805911256,
        0.22743728074474326,
        0.06054960749766374,
        0.45247898940921033,
        1.5030581023234624,
        -0.31522560217593715
      ],
      [
        -0.8168974051983301,
        -0.1285415452469371,
        -0.1728636129418693,
        0.10742851662672656,
        0.17229158795465785,
        -0.856300769314429,
        -0.6908522501948893,
        1.2741293772896642,
        0.19770196937144766,
        0.2665103351468956,
        0.5149524541511428
      ],
      [
        -0.7355074363022484,
        -0.2565685589297382,
        -0.20525511306188143,
        -0.4680334444835884,
        0.019910000914410683,
        -0.1518988699639171,
        -0.8116854703570472,
        -0.432969369869572,
        -0.6854337450508943,
        -0.5013825111629314,
        0.14930496063331924
      ],
      [
        -0.09737436052567353,
        0.7957772485078829,
        -0.027996526787480453,
        -0.9152748295544564,
        -1.6876100957518407,
        -1.1270491358473145,
        0.9044364224680245,
        -0.775716663195376,
        0.5853481384120316,
        0.4360894601329227,
        0.5259049623594511
      ]
    ],
    "b1": [
      -0.24260836839675903,
      -0.419249564409256,
      0.2107066810131073,
      -0.14768294990062714,
      -0.02341899462044239,
      0.07237572222948074,
      0.11798824369907379,
      0.6358219981193542,
      -0.5671502947807312,
      -0.05678803473711014,
      0.035751331597566605,
      0.4161917567253113,
      0.3366369903087616,
      0.18843244016170502,
      0.16729359328746796,
      0.7080535292625427
    ],
    "w2": [
      [
        -0.002398376435783297,
        -0.07627169069088473,
        0.03680870329087588,
        0.128070222565724,
        0.1040606832186102,
        -0.37311243110877756,
        -0.060797504800149,
        0.05315893345261081,
        -0.3001310846963156,
        0.6496874683711743,
        0.4087374591423957,
        -0.1323633403390614,
        0.39531309924419367,
        0.08996762250807391,
        0.10118534489543544,
        0.22732719668559773
      ],
      [
        0.48512446561596245,
        0.3271273591458009,
        -1.3156249508042197,
        0.19830518587333282,
        1.4387790397364486,
        -0.14506210397912112,
        0.6165209811598213,
        -0.13067493240580674,
        -0.2708337646626985,
        -0.5923905391168632,
        -0.5808107915635619,
        -0.5345322777804817,
        -0.04035036964774458,
        0.5100415863347582,
        -0.22020612153848923,
        -0.23366360608479445
      ],
      [
        -0.05210660908368792,
        0.397059269125612,
        0.5896567422837253,
        0.37742094894897266,
        0.9611367489341859,
        0.26454112374722244,
        0.08141664266818983,
        1.038713710211958,
        0.2379079433018716,
        -0.6018375351962505,
        0.30925467168606063,
        1.6365629967576547,
        -0.5421938933011724,
        0.722195757276557,
        -0.0871145599074808,
        0.43140394287676903
      ],
      [
        0.9873095863713327,
        -0.3736283185219593,
        0.8775229582234624,
        0.36019550339052664,
        1.3608419145438002,
        1.2188060226512742,
        -0.11829727481678604,
        0.47363645387499986,
        0.5173785624927878,
        0.7419661184425187,
        0.9160824733612851,
        -2.2645271649503127,
        0.4183432080913381,
        -0.7620724205188988,
        -0.19473484015995626,
        1.2106646412857487
      ],
      [
        0.19634387394863015,
        -0.5552708874958422,
        -0.22444891399852532,
        -0.48671681736266875,
        0.23586661094966063,
        0.7014327945647971,
        -0.4262973366201016,
        -0.5088430281171138,
        -0.5018183704344747,
        1.4330701252938045,
        -0.3296447085175726,
        0.23787276703412844,
        -0.30882042376669533,
        0.9673215090729601,
        -0.20995687367096366,
        -1.0033583898782805
      ],
      [
        -0.3057696250106219,
        -1.3724595233267245,
        0.8564337077708823,
        -0.31814037261181055,
        -0.7351103228192296,
        -1.0012453331129687,
        0.43855507290265994,
        1.1520644031213176,
        0.07790680054394544,
        0.9198189086872449,
        0.07860289648376075,
        -0.3163007698055463,
        -1.147258206029936,
        -0.8611241165363418,
        0.31706613883684287,
        -0.5914310169563269
      ],
      [
        -0.38203144224607355,
        -0.28010956540619264,
        -0.6579318624774116,
        0.1820924665650734,
        -0.560360076588583,
        0.207414347528223,
        -0.17921018081702628,
        -0.410739223339518,
        -0.3428001561141587,
        -1.1591939855409588,
        -1.603860153338855,
        0.820298953055623,
        0.0812057532437229,
        -0.3271290953613857,
        0.1396909713253995,
        0.7148904518816801
      ],
      [
        0.15571464227615767,
        0.23665440532547946,
        -0.8460285952431799,
        0.1816524009389545,
        0.23121125972019743,
        -0.5970668793506824,
        0.17222892954682756,
        0.3250807966716169,
        -0.3044711791730933,
        -0.5216294643385408,
        -0.38558946983035436,
        -0.5552975081123588,
        -0.0896081113049431,
        0.40464193029435525,
        -0.23926511651810736,
        0.49949036588861
      ]
    ],
    "b2": [
      0.1659688651561737,
      0.5433955192565918,
      -0.24365738034248352,
      0.07540592551231384,
      0.13333545625209808,
      0.9059380888938904,
      1.1169475317001343,
      0.3608027398586273
    ],
    "w3": [
      [
        0.24898103567728366,
        1.5066334219293884,
        -1.4414700937320108,
        -2.1375384012078293,
        1.5348531975586506,
        2.203742709232612,
        1.7278429418914691,
        0.8702769752705409
      ],
      [
        -0.2007681405074286,
        -1.1635866673307713,
        1.6139224615742058,
        2.5780862102125917,
        -0.7153902127583229,
        -1.540501382423656,
        -1.5419998467081053,
        -0.7732653271520451
      ]
    ],
    "b3": [
      0.4495181143283844,
      -0.4495181143283844
    ]
  },
  "selected_features": [
    "src_bytes",
    "dst_bytes",
    "same_srv_rate",
    "diff_srv_rate",
    "dst_host_same_srv_rate",
    "logged_in",
    "dst_host_srv_count",
    "dst_host_diff_srv_rate",
    "dst_host_srv_serror_rate",
    "dst_host_same_src_port_rate",
    "count"
  ],
  "selected_indices": [
    1,
    2,
    25,
    26,
    30,
    8,
    29,
    31,
    35,
    32,
    19
  ],
  "norm_params": {
    "mins": [
      0.0,
      0.0,
      0.0,
      0.0,
      0.0,
      0.0,
      0.0,
      0.0,
      0.0,
      0.0,
      0.0
    ],
    "maxs": [
      1379963904.0,
      1309937408.0,
      1.0,
      1.0,
      1.0,
      1.0,
      255.0,
      1.0,
      1.0,
      1.0,
      511.0
    ]
  },
  "n_features": 11,
  "architecture": [
    11,
    16,
    8,
    2
  ]
}